{
  "levels": [
    {
      "inputs": [0.42050172444762424, 0, 0, 0, 0],
      "outputs": [0, 1, 0, 0, 1, 1],
      "biases": [
        0.4007947679112621, -0.2314396559522583, 0.1356633325662595,
        -0.0005005958304615879, -0.40977919201472546, -0.07687411924205753
      ],
      "weights": [
        [
          -0.2218970456660171, 0.029302257299221562, -0.03761715048840894,
          -0.12460771731117165, 0.4005612171163914, -0.1761212859306358
        ],
        [
          0.2783220173538617, 0.21422124151065025, 0.26815545189874057,
          -0.09562143240910424, -0.08110542410674978, -0.05988865990068215
        ],
        [
          0.1660631928205347, 0.4151766372916441, 0.10494287881787279,
          0.007676843889507096, -0.016970690155645243, -0.14289994371552717
        ],
        [
          -0.37241743761704094, -0.005739986414523654, -0.030681888718047542,
          -0.06389950978800098, -0.12879477174175816, 0.0783717924912257
        ],
        [
          0.27355851949193255, -0.1478932443584539, 0.1963179596712099,
          0.23620963956957935, 0.21509365789266072, -0.2394570090274909
        ]
      ]
    },
    {
      "inputs": [0, 1, 0, 0, 1, 1],
      "outputs": [1, 0, 0, 0],
      "biases": [
        0.20152881746771317, 0.06160224691627503, 0.07086410590680632,
        0.14682686883248822
      ],
      "weights": [
        [
          0.018432051311949384, -0.3624508224473132, 0.09528606801098982,
          0.08077711528247045
        ],
        [
          0.14161847875442934, -0.42912170030516184, -0.0444599311164911,
          -0.05256343404094816
        ],
        [
          0.050465817154411154, -0.4220106357209658, 0.07884089356311119,
          0.14119780000324264
        ],
        [
          0.2569995765593953, 0.244865399994403, -0.24291910498268812,
          0.06735381268568821
        ],
        [
          0.352234076312654, 0.3391128242442817, 0.22734232553011754,
          -0.2817247555640754
        ],
        [
          -0.008835799798809094, 0.015661579496946597, -0.1239518836565811,
          -0.14606154560208545
        ]
      ]
    }
  ]
}
